-0.0631015
1.53224
-0.406087
3.12593
-0.36401
-0.143416
-0.108427
-0.0115962
-0.214178
-0.0743171
0.366703
-0.12318
2.08924
0.225494
0.347227
-0.259338
-0.285813
-0.0377814
-0.556662
0.0212859
-0.0220952
-0.510759
-0.128654
-0.355228
-0.561942
-0.0855993
-0.151669
-0.851991
-0.101887
-0.259492
-0.115093
-0.521315
0.17069
0.0872662
-0.440256
0.745979
-0.381604
-0.223498
0.43689
0.108031
-0.452486
1.20702
0.182414
0.0445218
0.666468
-0.0332882
-0.140516
0.819979
-0.574449
-1.2574
0.277972
0.192607
0.0582175
2.02327
0.940662
0.127459
0.164619
-0.466882
-0.0736933
0.0205336
-0.585278
0.592395
0.547331
-0.619766
0.298694
-0.00424145
-0.292215
-3.60437
0.11638
0.399989
-0.703958
-0.0443183
-0.0338597
0.0717935
0.895145
0.0670874
-3.84084
-0.537969
-0.448919
-1.05374
0.0623695
0.164293
0.253771
1.15688
0.151675
0.102598
0.881168
-0.243854
-0.28006
-0.332651
-0.316227
5.15473
0.0118795
-0.250731
0.0399036
-0.419533
-0.660657
-0.332925
-0.117314
1.17605
-1.94607
-0.0378704
0.188614
-0.0312207
0.0306206
0.224423
-0.047511
7.41535
-0.350323
0.272385
0.30989
-0.117177
-0.675881
-0.977397
-0.67992
0.161652
-0.25993
0.108427
0.275767
0.457619
1.10904
-0.0064949
0.484569
0.0627441
0.108375
0.586087
-1.04357
-0.17743
-2.28422
0.593393
0.0188837
0.0855441
3.1873
-0.191565
-0.0117096
-0.636485
0.0196429
-0.0267351
0.635953
0.941243
-0.19497
-4.64287
0.531013
0.0943566
0.30688
-1.42807
0.0921578
0.54162
0.659285
0.16518
0.27541
-1.05784
0.288882
0.210536
0.806371
-2.0035
0.118279
0.186612
0.230629
0.243563
0.020757
-0.422621
0.0856203
0.0290082
-0.235471
0.763707
0.372971
-0.817779
-0.130973
0.0179249
-0.254543
-0.137505
0.0444561
-0.00493371
-0.228253
0.0390889
0.0199625
-0.582022
-0.298539
-2.524
1.16728
3.75938
-0.969179
0.54078
0.38113
-0.0256233
-0.16586
-0.682557
0.0210614
-0.105542
-0.401311
1.59679
-0.0306647
-0.286889
0.41384
0.22153
-0.0688814
0.485421
-0.488456
0.0583362
0.583986
-0.138567
0.0138017
0.278257
-1.6397
0.424539
0.0280228
-0.287906
0.203437
0.0450892
-0.0113449
2.64018
0.364359
0.225767
-0.131367
0.0225174
-0.118654
-0.325152
0.712574
-0.307265
0.202799
-0.352722
0.719582
0.264263
-0.241414
0.0466442
0.0676451
-0.0633119
-0.121806
0.543712
0.135009
0.500148
-0.00130315
-0.374239
-0.00788352
0.118571
-0.0770049
-8.91165
-0.287074
-0.00640436
0.0185535
-0.450936
-1.02856
-0.861302
1.15144
0.0753348
-0.366056
-0.233218
0.144404
0.807808
0.00953055
-0.0102176
-0.250453
0.0880682
0.0248398
-0.0716125
0.774734
-0.24907
-0.902764
0.364623
-0.0415952
-1.03566
0.651628
-0.132534
-0.159948
-0.284712
0.0610276
0.0712179
-0.470298
0.916633
0.493344
-0.373818
0.292834
-0.0365408
0.393055
-0.00996566
-0.0589906
-0.0689761
0.0481077
-0.105352
-0.0717085
0.371622
-0.335127
0.349545
0.552978
-0.305309
0.502883
-0.215722
-0.102505
0.0687799
-0.0746669
-0.449154
-0.11976
-0.126182
-0.649533
1.65001
0.506485
0.509324
0.216783
0.171173
0.0248971
-0.178165
-0.154432
0.0791629
0.259341
0.11814
0.0807466
0.246011
-1.00186
-0.8564
-0.241895
-0.128031
0.0514985
-0.621583
0.196856
-0.0915264
0.214604
-0.189191
-0.0141361
0.0411371
-0.20848
0.395658
-3.49726
0.0302359
-4.64395
0.0875888
0.325017
-1.97462
0.0365036
-0.0891322
-0.192538
0.406555
0.218459
-0.562588
1.17021
-0.446028
0.473389
0.584412
0.0863731
0.69803
0.030665
-2.36514
0.435857
0.772518
0.272564
0.420169
0.346975
0.0508758
-0.695702
-1.03717
0.475928
-0.0533285
0.280745
-0.0217093
0.143145
0.0413894
0.223253
0.040208
0.0479151
0.330091
-0.61761
-0.783613
-0.190463
-0.216688
0.122986
-1.79769
0.391851
-0.0388004
-0.0742153
-0.408785
0.446627
0.548193
-1.81387
-2.46882
5.24784
-1.82831
-0.370609
0.213762
0.493744
-0.620455
-0.154339
0.523383
2.04663
-0.0324905
0.0245676
0.505584
-1.80602
1.79187
-1.93998
0.639732
-0.134212
0.997165
0.778085
-0.0794272
0.0127613
0.18741
0.0778005
0.360407
-2.56765
-2.39202
-5.08956
-2.28792
0.142398
0.573545
-0.0426888
0.107574
-0.247371
-0.442764
-0.762198
-0.133626
0.00173462
-0.396528
-0.33448
0.0420289
-1.1636
-0.170222
-0.0443318
-0.127099
-0.193403
-0.421971
0.895411
1.46194
-0.330266
-0.0345468
1.177
-0.322169
0.457484
-0.478683
0.170757
0.28615
0.0866899
-0.0796164
0.368027
0.216804
0.865535
-0.021241
0.148487
0.191461
0.450429
-0.322241
0.0633266
-0.359353
0.215702
-0.274917
-1.16029
-0.893193
-1.18132
0.0400769
-0.057494
-0.0283438
0.165722
0.185011
-0.0206618
0.514376
0.101951
-0.733328
0.130746
0.280752
-0.172649
-0.241947
0.0739816
0.273374
0.30922
-0.165064
-0.116243
0.0411212
0.40012
0.450417
0.121609
-0.178288
-0.198696
0.0152006
0.375227
0.201144
-0.149042
0.126922
-0.286748
-0.388799
0.443932
-0.144178
-0.113793
-0.0198723
-0.0225903
0.304148
-0.0275572
-0.170838
0.0331722
0.592502
-0.21354
-0.226702
0.424277
-0.0453205
-0.221764
-0.111631
-0.168218
0.15774
0.253491
-0.0848327
-0.279648
-0.0922705
-0.010264
0.134229
-0.148404
0.0856226
0.199933
-0.512043
0.380641
0.1316
-0.335217
-0.34316
-0.24016
0.0263172
0.129292
-0.0916224
-0.0437787
0.190047
0.0379862
0.000752429
0.0479977
0.58993
-0.211832
-0.0631835
-0.171684
0.0294959
-0.420701
0.0538501
-0.145249
0.355691
0.268913
0.115525
-0.266899
-0.176213
-0.214895
0.180039
-0.363077
0.181256
-0.287578
-0.201357
-0.000806819
0.109775
0.228334
-0.133672
0.239452
-0.232625
-0.0391114
-0.684672
-0.575965
0.527178
-0.414578
0.160743
0.707865
0.0579877
-0.769807
-0.218163
1.57289
0.224667
-0.566018
-0.0772118
-1.08095
0.341084
1.16638
-0.0331654
-0.29011
-0.665815
-0.406817
0.148384
-0.26546
0.183747
0.313098
-0.00133234
0.811948
0.177144
-0.705334
0.872344
-0.649756
-1.13356
-0.547715
0.187522
-0.309436
-0.0328837
-0.350261
0.0805796
0.0773832
0.23315
-0.421822
0.024887
-0.199725
0.328299
-0.00112001
0.0867936
-0.394247
0.102676
0.0489737
0.0811293
0.160597
-0.339793
-0.313217
0.184916
0.0146137
0.165848
-0.622684
-0.179115
0.0443645
0.0714917
0.30882
0.355821
0.0260572
0.152327
-0.19986
0.0279701
-0.0694265
-0.374179
0.196314
-0.0439152
-0.0162728
-0.685903
-0.109821
0.0412252
0.244469
-0.123621
0.248186
0.0435659
0.470308
-0.221182
-0.320801
0.355025
0.561971
0.31622
-0.153907
0.02558
-0.129836
-0.100044
0.0773054
0.253225
0.133662
0.0973292
0.0167548
-0.263737
0.254917
0.0356041
-0.704296
-0.399684
-0.414142
-0.694694
0.312279
0.828139
-0.390229
0.407136
0.439659
-0.28611
-0.249111
-0.560199
0.080701
0.00116936
-0.143892
0.174996
0.0364733
0.29058
-2.26243
-0.130073
-0.0422859
0.31522
0.0231069
-0.403372
-0.675804
-0.669629
0.793269
-0.321065
-0.00621943
0.565378
0.207621
-0.253348
0.124392
-0.027768
-0.199983
0.275017
0.22713
-0.0889323
0.011617
-0.652489
-0.0527679
0.728392
-0.0777405
-0.112515
0.296322
0.0384259
0.0653041
-0.0153675
0.0777192
0.235955
0.327376
0.306558
-0.0667177
-0.0317312
0.0222341
0.00389355
-0.401805
-0.0759922
0.144595
0.0401163
-0.259104
0.11226
0.540214
0.00290979
-0.046032
3.9121e-05
0.000308138
-0.141124
-0.0354492
-0.0588615
-0.0251228
-0.220857
0.196539
0.0133539
0.120337
0.0350672
0.215568
0.111282
0.136364
-0.331693
-0.145816
-0.112073
0.228902
-0.0037616
-0.0166753
-0.0543053
0.153478
-0.133751
0.267657
0.168432
0.0648411
-0.0278938
-0.0867721
-0.143418
-0.218132
-0.0352698
0.22944
-0.400679
-0.618605
-0.570439
0.687838
-0.374011
0.145791
0.045137
-0.0121073
-0.404495
0.115615
0.72769
0.00146698
-1.28461
0.174966
0.187911
-0.512925
0.157366
0.0550947
-0.517845
0.0841095
0.315049
0.566615
-0.474282
-1.43283
-1.17387
-0.518379
-0.360288
0.0080567
1.04502
-0.924609
-0.392915
0.0574605
0.162224
0.0568117
-0.0950385
0.00734658
0.294726
-0.0812663
0.4271
-0.278719
-0.034159
0.0185661
-0.0910649
-0.116654
-0.126147
-0.165148
0.208484
-0.0209706
-0.0194284
-0.25187
-0.0616209
-0.0134027
0.0160959
-0.0751808
0.126517
-0.277549
-0.0864149
0.00291672
-0.011176
0.132826
0.307919
0.270764
0.225768
-0.597723
0.105491
0.722607
-0.628763
-0.350846
-0.0746825
0.177806
-0.115377
0.685786
-0.830536
0.106376
-0.759963
0.0989409
0.550377
0.127254
-0.483351
0.21223
-0.230426
0.551871
-0.0641808
0.325736
-0.231006
0.255289
-0.283849
-0.593483
0.391319
0.304786
-0.327608
-0.808273
-0.259358
-0.803746
0.394211
0.0869043
-0.120541
-0.0169455
0.237252
0.0755804
0.152776
-0.0615544
0.442494
-0.248678
-0.170978
-0.151668
-0.0442228
-0.395522
0.107811
-0.156006
0.293835
0.158339
-0.0560835
-0.139322
-0.142128
-0.0872695
0.0972321
-0.185985
0.0431114
-0.227321
-0.258193
0.122635
-0.00760043
0.111621
0.00939678
0.0119802
-0.265109
0.305273
-0.0411812
0.0103607
-0.0569794
0.341332
0.247223
-0.318847
0.241425
-0.0558127
-0.204001
-0.00397706
-0.128623
-0.145268
-0.155388
0.131985
0.0226957
0.00422699
-0.0903612
-0.132528
-0.00477464
-0.0458777
0.0200028
-0.129575
-0.0240976
0.210798
-0.120529
-0.251128
0.029083
0.153265
-0.21641
-0.0586078
-0.161219
-0.350902
0.212873
0.170896
-0.162236
0.456577
0.336111
-0.4138
0.467036
-0.388941
-0.312048
0.144672
0.23386
-0.0536928
-0.627275
-0.159222
0.210853
0.274628
-0.158454
-0.360249
-0.101674
0.177554
0.0774071
0.099343
0.00343246
0.363118
-0.900595
0.0138954
-0.0699821
-0.604034
-0.0705528
-0.529174
0.57417
-0.655552
-0.265573
0.198258
0.426538
-0.766431
0.00391459
0.501479
0.0890983
2.9174
-0.996087
1.33542
0.0194305
-0.372316
-2.54697
0.0214321
-0.359084
0.0442192
-0.303371
1.08104
-0.115163
0.163541
-0.00629462
0.497303
-0.204458
-1.10525
0.601474
-0.171094
-0.259617
1.3987
0.556223
-0.119349
-0.440117
-0.0466408
0.0307107
-0.0998692
0.0759211
-0.0526395
0.0637798
0.104392
0.208102
-0.163015
0.0834458
0.0509702
0.122235
-0.0283594
0.156956
-0.0199712
0.094265
0.289613
0.173715
0.143207
0.014762
-0.0555129
0.0856503
-0.0807267
0.0555626
-0.328237
-0.10995
0.175425
0.0360588
0.0882592
0.045323
0.229218
-0.0490169
-1.36343
-0.0531195
0.615871
-0.190464
-0.719669
-0.493104
0.617174
0.215272
1.71629
0.320067
-0.754989
0.393008
0.189087
-1.91037
0.309613
-0.434311
0.139199
-0.580427
-0.78725
0.328877
0.958886
-0.383295
0.479456
-0.26654
-2.6978
-0.823321
1.01839
-0.328376
1.51765
0.110298
-0.337657
0.33637
-0.0402472
0.144027
-0.283969
-0.0465144
0.100309
-0.339625
-0.125353
0.321466
-0.0208712
0.142198
-0.274503
0.126457
-0.000471162
-0.108553
-0.0417131
0.216961
-0.0625864
0.193989
-0.108703
-0.105489
-0.312487
0.203811
-0.216069
0.0865743
-0.458519
-0.0407315
0.166805
0.0483683
0.19948
0.436906
0.171747
-0.0311454
0.0351053
-0.263634
-0.0320415
0.146213
-0.0586081
-1.05654
0.22401
-0.459637
0.753675
0.109064
0.277811
-0.196976
0.114905
0.372041
0.0215878
-0.0363147
-0.171837
-0.00956558
0.296622
-0.0642911
0.0816549
-0.00891288
0.122992
-0.121673
-0.080983
0.199323
0.155133
-0.00488979
-0.00377996
-0.0186045
-0.24666
-0.253215
-0.257549
0.254371
-0.380009
-0.100894
0.348852
-0.0173979
0.0938319
0.462984
1.22461
0.125395
0.546715
0.616452
0.119005
-0.174795
-0.150057
-0.254918
0.138834
-0.554673
0.764443
-0.205939
-0.538206
-0.111069
-0.323901
0.170648
0.858787
0.229719
0.265266
0.293509
0.352687
-0.45728
0.369839
0.0896182
-0.06252
0.0228983
0.0202206
0.0259135
-0.0710388
-0.103297
0.0903178
-0.108217
-0.0836388
0.0849711
0.00546675
-0.00363526
-0.0135054
-0.132741
-0.0553041
0.104147
0.022963
0.133685
-0.168267
0.0591585
0.0621335
0.00738107
-0.00546935
0.0976112
-0.0886516
-0.0509124
0.00679622
-0.0459841
-0.111704
0.205082
0.165924
0.12856
-0.107784
0.0963237
-0.349553
-0.0781439
0.459047
0.008947
-0.349332
0.140706
0.786754
0.377699
0.137001
0.34329
0.183727
-0.370672
0.125411
-0.214043
0.0362247
-0.0428224
-0.0925215
0.0574221
-0.516955
-0.0101862
-0.119619
0.0588619
0.456388
0.245787
0.0796567
0.22115
-0.390842
-0.434043
0.30871
-0.126233
-0.865853
0.0284262
-0.427379
-0.195515
0.205243
-0.217811
-0.130389
0.172163
-0.294153
0.123497
0.996525
0.376151
0.123504
-1.3772
0.0193173
-0.162436
-0.268977
0.191806
-0.0988551
-0.0491375
-0.343917
0.216993
0.0393304
-0.10899
0.461944
0.286054
0.775976
0.0233439
0.547936
0.445931
1.20474
0.163952
-0.0573869
-0.000832114
0.138355
0.138053
-0.023425
-0.00280465
0.010352
-0.41647
0.21142
0.035073
-0.0859087
-0.264366
0.0889404
0.00649939
-0.0760084
-0.0208419
-0.299159
-0.113631
-0.122285
0.0720865
0.180825
-0.154672
0.0972967
0.0474951
0.0597962
0.136418
-0.0332204
-0.030102
-0.177903
0.120947
0.158721
0.122148
-0.157268
-0.0960383
0.183459
0.293042
-0.11874
0.231279
0.181848
-0.301716
-0.333453
0.0436332
-0.193369
0.0755749
-0.190332
0.147202
-0.0877432
0.138011
0.217097
0.0913205
-0.0646199
0.0507023
0.300831
-0.0200531
0.111954
0.00897768
0.007242
-0.276133
-0.260162
-0.146151
0.0601605
-0.01502
-0.00430074
-0.0312104
-0.184803
0.0224553
0.0696321
-0.0928498
-0.0637096
-0.0262914
-0.014104
-0.365365
0.403514
-0.167944
-0.0166139
0.0987368
0.212315
0.205367
0.0171088
-0.332747
-0.329519
-0.240111
0.415018
-0.0280253
0.0193902
-0.0812028
0.299928
-0.108607
0.315877
0.269308
0.206896
-0.0475625
-0.440413
-0.179906
-0.201175
0.00672849
-0.0246902
-0.00617791
0.553282
-0.418663
0.445842
-0.946115
-0.902327
0.399117
-0.778603
-1.08498
-0.568095
-0.0660041
-0.0355662
0.717309
0.38071
-0.176644
0.237102
-0.621043
-0.912874
0.111741
0.434546
-0.423764
0.819697
-0.34126
-1.64611
0.96486
-0.285171
-0.405764
1.23831
-0.439319
1.52688
-0.211074
0.0486919
-0.334815
0.168482
0.527378
-0.480898
0.337155
0.600294
-0.0243988
0.421394
-0.0786126
-0.177703
-0.713532
0.012412
0.311985
-0.269173
0.177459
-0.280038
-0.362124
-0.764951
0.165091
0.354713
-0.305118
0.00265152
-0.142958
-0.526412
0.0324241
1.12616
-0.125746
1.37424
0.114737
-1.11814
-0.0547473
0.21475
-0.0458994
0.179451
-0.0453095
0.0426007
-0.198836
-0.129937
0.23121
0.553444
-0.408457
0.0247159
0.00064401
-0.172485
0.188445
-0.250392
-0.0982347
-0.295756
-0.292541
-0.0621912
-0.257495
-0.113256
-0.0391385
0.0646202
0.0844271
0.415208
0.284992
-0.0177552
0.0696133
-0.665106
-0.562349
-0.143326
-0.0761787
-1.31255
-0.155866
-0.108138
0.48934
0.657153
2.15104
0.178409
0.451904
1.31043
0.435986
2.0537
-0.277177
-0.153869
-0.306685
-0.186731
0.245264
-0.00182254
-0.0524694
0.390876
0.229211
-0.391595
-0.0873558
-0.742124
0.419322
-0.822465
-0.0556078
0.3521
0.451405
0.165951
0.237972
0.620133
-0.109056
0.401159
0.105925
-0.0281917
0.13916
-0.271258
0.112852
0.0394122
-0.0106525
0.0525886
-0.134117
0.65081
0.0968407
0.225065
0.113647
-0.0470545
-0.302129
0.0529191
0.060291
-0.145834
0.167864
-0.0256984
-0.322262
0.0356723
-0.0687924
-0.24634
0.107291
-0.0696947
-0.0266716
-0.142574
0.174658
0.0726695
0.5441
0.0100354
0.0146457
0.0438668
0.114788
0.180662
0.044354
-0.0808975
-0.0785251
0.105121
-0.124703
0.282359
0.144425
0.117084
0.0902471
-0.180376
-0.175316
0.0164944
0.142538
0.0326206
0.200616
0.0140215
-0.458259
0.12458
-0.180259
-0.1184
-0.0412836
0.0836668
-0.129537
-0.11021
0.182111
-0.149422
0.114924
-0.483199
-0.41768
0.289478
0.586103
0.42122
0.40126
-0.381888
0.110277
-0.180979
-0.263164
-0.532008
0.179795
-0.300734
0.329656
-0.0221222
0.0246052
-0.122223
0.258817
0.161496
0.358423
0.0522881
0.383439
0.0180258
0.092571
-0.0393257
-0.255885
-0.0701157
-0.496028
-0.0421039
-0.0378459
-0.105596
0.0118564
-0.00905695
-0.00653305
-0.0255219
0.00727368
-0.0128855
-0.0118528
0.010813
0.0291815
0.0131208
0.0209118
0.0467707
-0.0135416
0.0151768
-0.0409825
0.000831533
-0.0453218
0.0212055
0.0205099
-0.0324729
0.0316738
0.0361021
-0.0386353
0.0197926
-0.000880558
0.0158112
0.0222503
-0.0205688
0.0237013
-0.0189767
0.00102377
0.00965409
-0.0133635
-0.19418
0.103966
-0.189356
-0.19745
-0.325418
0.0894009
0.0643724
-0.0724908
-0.270214
0.149062
-0.188106
-0.0609871
-0.15699
-0.0844315
0.130157
0.079248
0.173261
-0.160866
0.119091
-0.378344
-0.167717
0.8007
-0.116868
0.0660354
0.505071
0.0753104
0.0403757
0.108328
0.00297903
-0.159976
-0.0491635
0.374551
-0.00784398
-0.0545368
0.0541139
0.0117821
0.0433898
0.00311427
-0.0392327
0.00515376
-0.0597305
0.0222298
-0.064659
-0.00857365
-0.0126553
0.0658358
0.0523689
0.0751631
-0.0679128
0.0275357
0.0476746
-0.0428326
-0.0425756
0.0817539
-0.0457355
0.0173513
-0.0186954
-0.0323819
0.0074554
-0.0092434
0.0227001
-0.0139675
0.0300134
0.0288509
0.642181
0.298265
0.367476
0.0606131
-0.540108
-0.0112117
0.482981
-0.193406
-0.338313
0.286337
-0.0562454
-0.0670401
0.197504
0.0233971
0.353448
-0.261781
0.80153
-0.150053
1.82019
0.182364
0.439582
0.718797
-0.339305
0.716152
0.253772
-0.20964
-0.635317
0.334051
-0.461645
0.223523
0.429381
0.32843
0.117448
0.0818694
-0.0729279
-0.0126437
-0.203166
-0.0283352
0.0209969
-0.0979915
0.103622
-0.0643533
0.363465
-0.0112392
0.0871959
0.00319598
-0.050525
-0.179442
0.165634
0.0232288
-0.0742561
0.111342
0.0453146
-0.148894
0.0367224
-0.0656534
-0.0750312
0.0357026
0.00676999
0.0105101
-0.182577
0.0509933
-0.0384348
0.133112
-0.0155201
-0.0901512
-0.0228168
0.29602
0.182725
0.0675418
-0.141332
0.0167518
0.13221
-0.180394
0.0788899
0.205337
0.0896714
0.218628
-0.133879
-0.19217
-0.217384
0.225603
-0.312796
0.409316
0.00111578
-0.56669
0.101351
-0.145856
-0.246091
-0.0830277
-0.0462492
-0.123001
0.0374441
0.250082
-0.0885281
-0.0503395
0.161839
0.0531156
-0.107502
-0.0132471
-0.229163
-0.0788737
0.107062
-0.135228
0.218338
-0.0352934
0.330979
-0.0295796
0.185237
-0.0782029
-0.122783
-0.133766
0.252321
-0.00436593
-0.230061
0.0738607
0.0427186
-0.216964
0.056103
-0.0527149
-0.00332877
0.0835378
0.0070901
-0.0480849
-0.201952
0.0705723
-0.0310125
-0.0118744
-0.329914
-0.0388718
0.014124
0.105568
0.268595
0.0966742
-0.263912
0.194471
-0.0730346
-0.0116634
-0.165385
0.0490983
-0.23398
0.195049
0.0590734
0.102149
-0.347195
0.0461613
0.210698
0.0451313
-0.121597
0.0855609
-0.0736871
0.0656511
0.146383
-0.0459619
0.127443
-0.0873994
0.0827402
-0.151995
-0.079218
-0.0976875
-0.120775
0.235322
-0.175796
-0.243773
-0.213355
-0.248122
0.0871322
-0.523096
0.234037
0.081779
0.371768
-0.0949881
-0.365116
-0.271995
-0.0259817
-0.488297
0.0879454
-0.246355
-0.182405
-0.437681
-0.108142
0.056417
0.0628321
-0.10238
0.137099
0.216421
0.121999
0.0673735
-0.607393
0.421886
0.138416
-0.43258
-0.150598
-0.356827
-0.0870206
-0.2656
0.475128
0.888228
0.0100975
1.2199
0.617763
0.0597895
0.220843
0.150808
-0.314358
-0.313365
-0.482923
-0.184666
0.501923
0.236339
0.576793
0.485671
0.561954
0.0108062
0.135153
-0.00878511
0.330133
-0.0499832
-0.39698
0.0901016
0.562689
-0.78101
-0.874214
-0.948971
0.0414777
0.0452386
-0.0918649
0.0226631
-0.0501455
0.0495789
0.00288194
-0.0474072
0.13645
-0.0519857
0.149295
0.00661535
0.0233325
-0.0257699
-0.137781
-0.174674
0.13405
0.0137921
-0.00716763
0.160365
0.0666047
-0.169836
0.0738895
0.0148289
0.0121906
0.0429978
0.0210039
-0.0402071
-0.119359
-0.000939913
-0.10653
-0.0067032
0.42174
0.116641
-0.049318
-0.198148
-0.35435
-0.241762
0.315718
-0.152542
0.0786447
0.0769209
0.00852899
-0.0492348
0.247137
-0.311013
0.0341315
-0.0604165
0.479686
-0.106051
-0.198695
-0.23528
0.0859375
-0.0408102
0.0341435
-0.0367928
-0.210587
0.0374795
-0.0771479
0.0819029
-0.255613
0.169068
0.0851766
0.0344657
0.00684765
0.164269
-0.281394
-0.0997554
-0.337008
-0.019488
0.0955698
-0.0875326
0.343661
-0.0391094
0.233592
-0.0134538
-0.0574529
-0.16709
-0.210415
-0.179407
0.188355
0.0350321
-0.236319
0.0529038
0.0273481
-0.151359
0.118707
0.00446212
0.143966
0.0846829
0.0868961
-0.0392844
-0.245808
0.140827
-0.180466
-0.116856
-0.0377261
-0.0176925
0.0596762
-0.0510934
0.0975123
-0.0202572
-0.0210771
0.0470159
-0.153822
0.036575
-0.212324
-0.0189261
-0.0127134
0.0190827
0.105599
0.150447
-0.115877
-0.022272
0.0105559
-0.116458
-0.0815738
0.190363
-0.056522
0.00460451
0.0184621
-0.0463197
-0.0131529
0.0485938
0.156032
0.0154796
0.0689113
-0.0218003
0.108718
0.0249265
-0.0676965
-0.0258844
-0.101723
-0.0578753
0.0277898
-0.0709397
0.136995
-0.0500454
0.271031
-0.0174939
0.0883857
-0.0595047
-0.072752
-0.15761
0.178702
0.0331089
-0.113907
0.103684
0.0820902
-0.106692
0.0648209
-0.00181682
-0.0443263
0.047746
0.0255643
0.00635428
-0.211312
0.0320525
0.00136911
0.00108119
0.00151717
-0.0214734
0.00832227
-0.0301882
0.00968633
0.00185453
0.0197013
0.0148052
0.00865214
-0.0090624
-0.0241853
-0.0096534
0.0191654
-0.000193029
-0.00333759
0.0152357
0.00193075
0.0155229
0.00728717
0.0239606
0.0124269
0.0207278
0.00563172
-0.00453528
0.00126892
-0.000899594
0.000514972
0.0334202
0.0409414
-0.0247609
0.0188886
0.0177447
0.0379046
0.0443066
-0.0399216
0.0640329
-0.0445368
0.0292122
0.022327
-0.017774
0.168287
-0.0889161
0.238273
0.0027431
-0.00943813
0.00694265
-0.0836064
-0.177512
0.0983871
0.0328487
-0.00138673
0.152745
0.0732085
-0.210621
0.06138
-0.00862273
-0.0155279
0.0435926
0.0684527
-0.0944667
-0.109279
-0.0113854
-0.0898219
0.0847118
-0.0155876
0.00593614
-0.0502769
-0.021264
-0.0168147
-0.00640747
0.0310591
0.00919154
0.041129
-0.00808602
0.0361511
-0.00142007
0.0135493
-0.01285
-0.0397683
-0.0196011
0.0457556
-0.0187891
-0.0364408
0.0082856
-0.00617773
-0.0231566
0.0348029
-0.00594484
0.00395254
0.0212621
-0.0238392
0.0121408
-0.0423681
0.0276718
0.0100342
-0.010928
-0.06008
-0.278446
0.0649776
-0.184334
-0.0149147
-0.062146
0.0196793
-0.0388688
-0.27683
0.223188
-0.198112
-0.12637
0.0452749
-0.251807
0.0931075
0.469304
0.156731
-0.187243
-0.160755
-0.16181
-0.101702
0.439495
-0.0600018
0.120891
0.176494
-0.0530917
-0.218093
0.233398
-0.0268576
-0.134309
0.235448
-0.45651
0.0781035
-0.292194
0.0859505
-0.156797
-0.302228
0.309495
-0.13598
0.143033
0.296187
0.184624
-0.262915
-0.360557
1.07922
-0.0283076
-0.255852
0.191923
1.64307
0.350095
-1.79722
-0.122581
0.410132
0.724311
-0.0858476
0.750749
-0.183103
-0.228117
0.238491
0.336559
-0.433879
-0.422167
-0.394268
-0.0816988
-0.0128265
-0.0569997
0.111745
-0.00767674
0.0880721
0.0157924
-0.0611352
-0.0525066
-0.158281
0.0407692
-0.0790458
0.0248892
-0.000489086
0.0289193
0.0954126
0.196689
-0.0292791
-0.0112903
0.0755776
-0.0950573
-0.0316899
0.16581
-0.0661918
0.0260468
-0.0221548
-0.0380467
-0.0317835
0.0441665
0.121103
0.0247834
0.069239
0.0185317
0.0257638
0.0342628
-0.0368014
0.00207709
-0.0151838
-0.0257201
0.0309246
0.0360618
0.0133485
0.00238823
0.0351088
0.00138006
0.0323132
-0.0366619
-0.0509645
-0.0359896
0.0120736
0.0187324
-0.0158352
0.00480332
0.0407442
-0.0297346
0.0475237
-0.0106234
0.0179726
0.0260673
0.00522487
0.0130695
0.00176796
-0.00948194
-0.0353343
-0.0224832
0.277143
-0.0932358
0.553149
0.0901953
0.290665
-0.059935
-0.12646
0.279537
-0.33859
-0.0324761
-0.0302499
0.0884266
0.0570364
0.137639
0.248615
0.271189
0.0211774
-0.0703143
0.423519
-0.188505
-0.0699125
0.252647
-0.0536248
0.100491
0.0470236
-0.0388895
-0.0544028
0.04473
0.247002
-0.359774
0.326923
0.359526
0.128489
0.0921639
0.0363535
0.0533815
-0.911217
0.441813
0.262884
-0.464524
-0.0213845
-0.00178953
0.845127
0.0687822
-1.00521
-0.0972519
0.273249
0.169569
-0.241511
-0.0840604
-0.680158
-0.165107
-0.41514
-0.176081
-0.0233549
0.375997
0.0576413
-0.352642
-0.163062
-0.346445
-0.114474
-0.419148
-0.19652
-0.167405
0.074245
-0.0889023
-0.00716513
0.32418
0.319728
-0.0204966
-0.165154
-0.0786037
0.405361
-0.217214
-0.191972
-0.00543598
-0.555172
0.122527
0.00889135
-0.39271
-0.500433
0.204714
-0.289548
0.0212466
-0.384768
0.2735
0.0827028
0.0621537
0.931401
-0.134464
0.524272
-0.469058
0.42377
-0.651693
0.00562601
-0.311762
-0.0782312
-0.060886
0.0606857
-0.00783784
0.14257
-0.0202816
-0.021482
0.0831701
-0.103275
0.0389647
-0.306247
-0.0306439
-0.0732661
0.0617993
0.0493489
0.118735
-0.173184
-0.035271
0.063247
-0.0824422
-0.0381733
0.127255
-0.026685
0.0289939
0.0829529
-0.0693036
-0.0338548
0.0358486
0.190306
-0.0497429
0.0380089
-0.0865658
0.0215313
-0.0455498
0.0394587
-0.0130904
0.0162719
0.0387453
-0.0191482
-0.0194169
-0.0895653
0.00780688
-0.0642312
0.0129909
0.0101049
0.0683009
0.0415801
0.0772897
-0.0630342
-0.0274985
0.047486
-0.049692
-0.0565854
0.0556468
-0.0376916
0.0115369
-0.0378086
-0.0178752
0.018146
-0.0228891
0.0365897
-0.00551542
0.0148994
0.0331765
-0.00217877
-0.0366662
0.0896612
0.0165527
0.0536295
-0.00269479
-0.0418084
0.019066
-0.119174
0.00942572
-0.0984675
0.0132017
0.00364837
0.0637594
0.0713677
0.0970604
-0.0852172
-0.0184557
0.046545
-0.0843791
-0.0744463
0.0861044
-0.072897
-0.00290497
-0.0125203
-0.0366362
0.017423
0.00846629
0.043569
0.000997635
0.030684
0.044695
-0.121149
-0.104446
0.0975079
0.0481858
0.167367
0.0879056
-0.100199
0.0960018
-0.0828974
-0.0198064
-0.244904
-0.00200079
-0.100208
0.0845183
0.0287883
0.134809
-0.140113
0.0243962
0.107649
-0.0136815
-0.073014
0.0843423
-0.0257946
0.0500986
0.075233
-0.0547041
0.0437811
-0.038345
0.114971
-0.0662038
-0.0251687
-0.0439103
-0.278047
-0.315225
0.648593
-0.0343541
0.728265
0.0549297
-0.936832
-0.0658445
-0.567489
-0.147104
0.238901
-0.696068
0.8422
-0.0834794
-0.392859
-0.270749
0.0621155
-0.101569
-0.00999086
-0.0657123
-0.0303143
0.451408
-1.18616
0.0949409
-0.0415135
0.353472
-0.851723
0.776002
0.0615763
0.0567566
0.0674066
0.0804001