-0.0648904
0.0337965
-0.073416
-0.0233754
-0.0177241
0.119585
0.106512
0.134758
-0.109967
0.122761
-0.0313371
-0.114095
0.151057
0.0747747
-0.0194368
-0.0196906
0.102873
0.0656469
-0.158829
-0.0659186
-0.0138984
0.0330683
0.0476873
-0.0610839
0.0469749
-0.1266
-0.0981882
0.0246316
0.137756
0.0188262
0.00839296
0.031182
0.10496
0.0175223
0.0456805
-0.0773524
-0.0551019
0.121863
-0.0904195
-0.102224
0.139815
0.0151015
0.107792
-0.00202421
0.108647
0.0203894
-0.148801
0.0282288
0.00662636
-0.0158998
0.0445769
-0.037673
0.00254939
-0.013108
0.0205625
0.0416306
-0.0680674
0.0310902
-0.0144003
0.0242349
-0.0382525
0.0654238
-0.0382807
-0.0433787
-0.0566561
-0.0460006
0.0114529
-0.0477924
-0.0112704
-0.00760964
0.0350828
0.0642835
-0.00823221
0.0615723
0.0448498
0.0475962
0.000141456
0.0311786
-0.0373803
-0.0326362
-0.0366662
-0.0540813
-0.058516
-0.0274887
0.0399914
-0.0438438
0.0282406
0.0492743
0.0619884
0.016746
0.0379778
0.0165149
-0.0144789
-0.0156651
0.0491624
0.0522829
-0.0609951
0.00382492
0.0314017
0.0355054
0.0492486
0.0244551
-0.013879
-0.0193851
-0.0272587
-0.0700236
0.0251617
0.0452917
0.0444767
-0.0209268
0.0646791
-0.0233291
0.0533815
-0.0116561
0.0562845
-0.055018
-0.004917
-0.0486633
-0.0344491
0.0346603
0.0404445
-0.0215311
0.03108
0.0184109
-0.040397
0.0351391
-0.0163854
0.0393073
-0.0274071
-0.0167347
0.0362979
-0.0145288
0.0217771
-0.00495091
-0.0521468
0.0282425
-0.0210493
0.0532159
0.00589732
0.0254112
0.0517501
-0.017785
-0.0139683
-0.038787
0.0259162
0.0539157
0.0184866
0.0278663
0.0178615
0.0308164
-0.00337531
-0.0324528
0.00858293
-0.0403634
-0.051424
0.0409067
-0.00921125
0.00438524
0.061403
-0.0268771
0.0290953
0.0636389
0.0296124
-0.00139978
-0.0147315
-0.0509676
0.00934466
0.0335983
0.0185991
-0.0152826
-0.0378103
-0.0500813
0.0295321
0.0257795
0.0364022
-0.0588158
0.0299527
0.0143198
0.0225889
0.0480744
-0.0454025
-0.0668856
-0.0141502
-0.0424271
-0.0186424
-0.0379799
-0.0214504
-0.0099594
-0.015958
-0.0151597
0.0266072
0.0409785
0.0445137
-0.0405869
0.0235314
0.0343492
-0.0596921
-0.00310602
0.00211702
-0.0569108
-0.0334888
0.00314744
-0.0291975
0.0141736
-0.011291
-0.0301169
0.0469958
-0.0387305
0.0780746
-0.0576263
0.0145003
-0.0324876
-0.055859
-0.0325084
0.0473323
-0.0496168
-0.0650176
0.061106
0.0378399
-0.00754741
0.0195934
0.037334
-0.0381897
-0.0504809
-0.0421466
0.0113886
0.0157894
-0.0438602
-0.0140954
0.0262785
-0.0238953
0.0329949
0.0539541
0.0434213
-0.0439783
-0.0553995
-0.0159319
0.0224259
0.0432374
-0.0362194
-0.0496889
0.0559157
-0.0647211
0.00238516
0.0141636
0.00185062
0.0493754
0.0336924
0.02227
0.027967
0.0191192
-0.053947
0.0289788
-0.0513874
0.0331474
0.0255283
-0.0562666
-0.00278159
-0.0135133
0.0429535
-0.0388213
-0.0331026
-0.0368323
0.0255106
-0.06503
0.0652579
-0.0100223
-0.0246968
0.0156106
0.0219059
0.0112865
-0.0250932
0.0481982
0.0240066
0.0244356
-0.0101266
-0.0101012
-0.00338219
-0.0285841
-0.0062103
-0.0424714
0.059865
-0.050039
-0.00579539
0.0301453
0.00122824
0.070013
-0.0411666
0.049382
-0.0389782
0.0148115
0.00587238
0.0538231
0.0601028
0.0260945
-0.0183854
-0.05974
0.0063292
-0.0114144
-0.0405567
0.0288236
0.0630957
0.0229743
-0.0394725
0.0716811
-0.0435558
-0.0618126
-0.0781671
0.000518989
0.00343911
-0.0158969
0.0429956
-0.0198189
0.0286221
0.118296
-0.0705422
0.0806889
0.0599259
0.0346938
0.0691523
-0.0814996
-0.0701437
0.00713233
-0.0405714
-0.00659074
-0.06626
-0.0716227
0.00168648
0.0330873
0.0643973
0.00932226
-0.0245289
-0.0238632
-0.0253178
0.0156835
-0.0569136
0.0921232
0.0389154
0.0964715
0.0611598
0.0564302
0.0136585
0.0817899
-0.0649104
0.0249119
0.0588171
-0.0434891
-0.0940031
0.0966146
0.0538712
-0.0986291
0.0522744
0.0526902
0.0166832
-0.0450536
0.0492676
-0.0373502
0.0838372
0.0156516
-0.0751579
-0.00218402
-0.0641552
-0.0345369
-0.0329398
-0.0607467
0.10195
0.0777665
0.0377094
0.101418
-0.0527619
0.0883128
0.0980356
-0.0785582
0.0684912
-0.0870525
0.0633096
0.0856504
0.0998719
-0.0653212
0.00322938
0.0600699
-0.0489426
0.0163898
0.0253531
-0.0185376
-0.0559318
0.00864284
-0.0511443
0.0507564
-0.071166
-0.072246
-0.0423877
-0.00464489
-0.0604426
0.0869031
0.0293542
-0.00575356
-0.0968378
-0.085617
-0.0406222