0.127945
-0.144072
0.0611398
0.138477
-0.156284
0.0155065
0.0326467
0.112444
0.0132109
-0.118264
0.0217391
0.0440003
-0.0700538
0.127367
-0.0845507
0.0353679
-0.189591
-0.0575686
-0.0718436
-0.184774
0.0426385
-0.102303
-0.010953
-0.152441
0.0960146
-0.0264131
-0.0636654
0.0196084
-0.00505891
0.088437
0.0762497
-0.0712513
0.0732772
0.113378
-0.0170977
0.134409
0.119828
-0.146502
-0.0294524
0.0764415
0.0845243
0.0702084
0.194349
0.0410947
0.0156213
0.0286972
-0.0363484
-0.126788
-0.00503616
0.0296235
0.0142725
-0.0494355
0.00620775
0.0106881
-0.035968
0.045068
0.0542217
0.0162147
0.0212391
-0.0192974
0.0551964
0.0747663
0.0739791
-0.0316536
-0.0165752
0.0433467
-0.0426413
0.0328979
-0.0441804
0.012782
0.059423
-0.0341882
-0.0624893
-0.0207332
0.0114768
-0.0321719
0.0683093
-0.065117
-0.0226864
0.0261513
0.0058258
-0.0530006
0.00888019
0.0233455
0.0149179
-0.0361195
0.0110299
0.0153383
0.0194589
0.00141258
0.0454088
-0.0614564
0.0395848
0.0237669
0.040977
-0.0138228
0.0730894
0.0467988
0.0281705
0.0518437
0.0308962
0.00565057
0.0391764
0.0435618
-0.0348449
-0.0524076
-0.0298395
0.0426674
0.0689889
-0.0442716
0.0437884
-0.0418524
-0.0453896
0.00315958
-0.041806
0.0124799
0.0504327
-0.0439969
0.0429467
-0.0349808
0.00614821
0.0573359
-0.03108
0.0376477
-0.0300453
0.0172867
-0.0364252
-0.046548
0.0309576
0.0143402
0.0239981
-0.0664584
0.0143617
0.0366655
-0.0655597
-0.00643028
-0.0225695
0.0375293
0.0244533
-0.0146755
0.029033
0.0035142
-0.0272325
0.00957797
-0.0187783
0.065589
0.0182902
-0.0224165
0.0335836
0.0346235
0.0233345
-0.0436131
0.0041298
0.0705327
-0.0109791
-0.0113766
0.0465408
-0.0369182
-0.0314469
0.0394939
-0.0401187
-0.0546047
-0.0529496
-0.020625
-0.0143574
0.0350532
0.0144292
0.0480418
0.033613
0.0266984
2.13859e-05
0.0111775
-0.064485
0.033296
-0.0118437
-0.0189806
-0.0416942
-0.0479975
-0.0487036
-0.0339867
0.0334943
0.0160591
0.0708743
-0.0407498
-0.0619802
0.0249001
-0.0179963
0.0529643
0.00525162
0.0237344
-0.0544305
-0.0189995
-0.0257003
-0.0590601
-0.0247146
-0.0104949
-0.0066235
0.0346074
0.0325233
0.0353195
-0.00609543
-0.0301929
-0.0318201
0.0192369
-0.0457525
-0.0270982
-0.0231763
0.0362017
0.082571
0.0198269
0.00647721
-0.00353976
-0.0230122
0.0769425
0.0814617
-0.0150441
0.00158036
0.0594253
-0.0443946
-0.00744763
-0.0155147
-0.0243899
-0.0479177
0.0215484
0.00988177
0.0491335
-0.0568358
0.0379111
-0.0817859
0.0963634
0.0387727
-0.00421827
0.0388329
-0.0496377
0.0494514
0.0152454
0.00969215
-0.0830494
0.0352345
0.0425001
-0.04818
-0.0435452
0.0309297
-0.0235048
-0.0314019
0.00678103
-0.0375011
0.0301258
-0.0534844
0.0227299
0.00439506
0.0377936
0.0323775
0.0510112
-0.0151174
0.056972
0.020883
0.0645958
0.0194248
-0.0326016
0.0252814
-0.0207449
-0.0141815
-0.0209192
0.0426496
0.0456549
-0.0219715
0.000411814
-0.0109415
0.0242538
0.0601645
0.00418268
0.0593263
0.00258613
0.0281414
-0.0445471
-0.0787953
-0.0221944
0.000502813
0.033367
0.0723769
0.03384
0.0756468
0.0077321
0.0180312
0.00630211
-0.0319423
0.0473412
0.0503708
-0.0381199
-0.0488773
0.0614657
-0.0406306
-0.0197949
0.0190689
-0.0206118
-0.0181301
-0.0406461
-0.0232889
0.0428398
-0.0102077
0.00355167
-0.0715384
0.00550065
0.0924722
0.055818
-0.0600566
0.0287983
-0.0372766
-0.0394424
-0.0123772
0.0474715
0.0950528
0.0355957
0.0457444
0.101392
-0.00592574
0.0250635
0.0361892
0.0617463
-0.111281
-0.0223817
-0.0566751
0.0656656
-0.0492056
-0.0874263
0.104899
0.0195055
-0.00674125
-0.0268026
0.12457
0.103611
-0.045077
-0.0880546
-0.0412357
0.0828855
0.0486741
-0.0642321
-0.00087991
0.0491986
-0.0899397
0.0753709
-0.00678916
0.0408847
0.0658557
-0.0841971
0.0866678
-0.00859965
0.0297373
0.059392
-0.0205262
-0.063329
-0.0185722
-0.0321524
0.0635287
-0.0422325
-0.0489479
-0.00750895
0.0852281
-0.0142577
0.0141903
-0.0729124
-0.0345973
-0.01496
0.026114
-0.0693415
-0.0304092
-0.00648999
0.111111
-0.0814833
-0.0764148
-0.0219689
0.010695
-0.0189241
0.0231633
-0.0401854
-0.112214
-0.0550957
0.0694209
0.0186918
0.008403
0.117475
0.04385
-0.0676705
0.0642092
0.109526
0.0227191
0.0457486
0.0152842
0.0209536
0.0307667
-0.0905274
0.0355054
0.0149172
0.0568725
0.133944
0.00997847
0.00993294
0.104712
-0.0568795
